digraph Tree {
node [shape=box, style="filled, rounded", color="black", fontname="helvetica"] ;
edge [fontname="helvetica"] ;
0 [label="x[1] <= -4.787\nsquared_error = 29912.943\nsamples = 75\nvalue = 3.103", fillcolor="#f3c4a2"] ;
1 [label="squared_error = 0.0\nsamples = 1\nvalue = 367.063", fillcolor="#e88f4f"] ;
0 -> 1 [labeldistance=2.5, labelangle=45, headlabel="True"] ;
2 [label="x[1] <= -3.196\nsquared_error = 28502.89\nsamples = 74\nvalue = -1.815", fillcolor="#f3c5a3"] ;
0 -> 2 [labeldistance=2.5, labelangle=-45, headlabel="False"] ;
3 [label="x[1] <= -3.659\nsquared_error = 26242.311\nsamples = 8\nvalue = -160.67", fillcolor="#f8dcc7"] ;
2 -> 3 ;
4 [label="x[1] <= -4.08\nsquared_error = 15227.536\nsamples = 5\nvalue = -76.363", fillcolor="#f5cfb4"] ;
3 -> 4 ;
5 [label="x[2] <= 10.11\nsquared_error = 12050.932\nsamples = 4\nvalue = -113.735", fillcolor="#f6d5bd"] ;
4 -> 5 ;
6 [label="x[2] <= 8.446\nsquared_error = 1897.432\nsamples = 3\nvalue = -54.215", fillcolor="#f5ccaf"] ;
5 -> 6 ;
7 [label="squared_error = 0.0\nsamples = 1\nvalue = -108.242", fillcolor="#f6d4bc"] ;
6 -> 7 ;
8 [label="x[1] <= -4.71\nsquared_error = 656.993\nsamples = 2\nvalue = -27.202", fillcolor="#f4c8a9"] ;
6 -> 8 ;
9 [label="squared_error = 0.0\nsamples = 1\nvalue = -52.834", fillcolor="#f4ccaf"] ;
8 -> 9 ;
10 [label="squared_error = 0.0\nsamples = 1\nvalue = -1.57", fillcolor="#f3c5a3"] ;
8 -> 10 ;
11 [label="squared_error = 0.0\nsamples = 1\nvalue = -292.295", fillcolor="#fcefe5"] ;
5 -> 11 ;
12 [label="squared_error = -0.0\nsamples = 1\nvalue = 73.127", fillcolor="#f1ba92"] ;
4 -> 12 ;
13 [label="x[2] <= 7.751\nsquared_error = 13009.948\nsamples = 3\nvalue = -301.184", fillcolor="#fcf0e7"] ;
3 -> 13 ;
14 [label="squared_error = 0.0\nsamples = 1\nvalue = -142.352", fillcolor="#f7d9c3"] ;
13 -> 14 ;
15 [label="x[1] <= -3.377\nsquared_error = 594.236\nsamples = 2\nvalue = -380.6", fillcolor="#fefbf9"] ;
13 -> 15 ;
16 [label="squared_error = 0.0\nsamples = 1\nvalue = -404.977", fillcolor="#ffffff"] ;
15 -> 16 ;
17 [label="squared_error = -0.0\nsamples = 1\nvalue = -356.223", fillcolor="#fef8f4"] ;
15 -> 17 ;
18 [label="x[2] <= 10.739\nsquared_error = 25347.34\nsamples = 66\nvalue = 17.44", fillcolor="#f2c29f"] ;
2 -> 18 ;
19 [label="x[2] <= 7.251\nsquared_error = 26192.646\nsamples = 48\nvalue = -11.429", fillcolor="#f3c6a6"] ;
18 -> 19 ;
20 [label="x[3] <= 3.665\nsquared_error = 43372.07\nsamples = 8\nvalue = 120.531", fillcolor="#efb388"] ;
19 -> 20 ;
21 [label="x[0] <= 0.467\nsquared_error = 42433.64\nsamples = 4\nvalue = 251.344", fillcolor="#eba06a"] ;
20 -> 21 ;
22 [label="x[0] <= 0.131\nsquared_error = 11052.532\nsamples = 2\nvalue = 59.925", fillcolor="#f1bc95"] ;
21 -> 22 ;
23 [label="squared_error = 0.0\nsamples = 1\nvalue = 165.056", fillcolor="#eead7d"] ;
22 -> 23 ;
24 [label="squared_error = 0.0\nsamples = 1\nvalue = -45.206", fillcolor="#f4cbad"] ;
22 -> 24 ;
25 [label="x[2] <= 6.87\nsquared_error = 532.612\nsamples = 2\nvalue = 442.762", fillcolor="#e6843e"] ;
21 -> 25 ;
26 [label="squared_error = 0.0\nsamples = 1\nvalue = 419.684", fillcolor="#e68843"] ;
25 -> 26 ;
27 [label="squared_error = 0.0\nsamples = 1\nvalue = 465.84", fillcolor="#e58139"] ;
25 -> 27 ;
28 [label="x[0] <= 0.486\nsquared_error = 10086.611\nsamples = 4\nvalue = -10.282", fillcolor="#f3c6a5"] ;
20 -> 28 ;
29 [label="x[3] <= 8.007\nsquared_error = 1955.277\nsamples = 2\nvalue = 84.976", fillcolor="#f0b890"] ;
28 -> 29 ;
30 [label="squared_error = 0.0\nsamples = 1\nvalue = 40.757", fillcolor="#f2bf9a"] ;
29 -> 30 ;
31 [label="squared_error = 0.0\nsamples = 1\nvalue = 129.195", fillcolor="#efb286"] ;
29 -> 31 ;
32 [label="x[3] <= 5.092\nsquared_error = 69.867\nsamples = 2\nvalue = -105.54", fillcolor="#f6d4bb"] ;
28 -> 32 ;
33 [label="squared_error = 0.0\nsamples = 1\nvalue = -97.181", fillcolor="#f6d2b9"] ;
32 -> 33 ;
34 [label="squared_error = 0.0\nsamples = 1\nvalue = -113.898", fillcolor="#f6d5bd"] ;
32 -> 34 ;
35 [label="x[3] <= -4.929\nsquared_error = 18577.515\nsamples = 40\nvalue = -37.822", fillcolor="#f4caac"] ;
19 -> 35 ;
36 [label="x[3] <= -7.737\nsquared_error = 9626.802\nsamples = 12\nvalue = 48.184", fillcolor="#f1bd98"] ;
35 -> 36 ;
37 [label="x[2] <= 8.451\nsquared_error = 4336.797\nsamples = 7\nvalue = -18.69", fillcolor="#f3c7a7"] ;
36 -> 37 ;
38 [label="squared_error = 0.0\nsamples = 1\nvalue = -152.194", fillcolor="#f7dac6"] ;
37 -> 38 ;
39 [label="x[2] <= 9.11\nsquared_error = 1593.973\nsamples = 6\nvalue = 3.56", fillcolor="#f3c4a2"] ;
37 -> 39 ;
40 [label="x[1] <= 1.435\nsquared_error = 88.196\nsamples = 2\nvalue = -45.634", fillcolor="#f4cbad"] ;
39 -> 40 ;
41 [label="squared_error = 0.0\nsamples = 1\nvalue = -36.243", fillcolor="#f4caab"] ;
40 -> 41 ;
42 [label="squared_error = -0.0\nsamples = 1\nvalue = -55.026", fillcolor="#f5ccaf"] ;
40 -> 42 ;
43 [label="x[3] <= -9.882\nsquared_error = 531.762\nsamples = 4\nvalue = 28.158", fillcolor="#f2c09d"] ;
39 -> 43 ;
44 [label="squared_error = 0.0\nsamples = 1\nvalue = 67.77", fillcolor="#f1bb94"] ;
43 -> 44 ;
45 [label="x[0] <= 1.417\nsquared_error = 11.612\nsamples = 3\nvalue = 14.954", fillcolor="#f2c2a0"] ;
43 -> 45 ;
46 [label="x[1] <= -1.168\nsquared_error = 0.496\nsamples = 2\nvalue = 12.579", fillcolor="#f3c3a0"] ;
45 -> 46 ;
47 [label="squared_error = 0.0\nsamples = 1\nvalue = 11.874", fillcolor="#f3c3a0"] ;
46 -> 47 ;
48 [label="squared_error = 0.0\nsamples = 1\nvalue = 13.283", fillcolor="#f3c2a0"] ;
46 -> 48 ;
49 [label="squared_error = -0.0\nsamples = 1\nvalue = 19.704", fillcolor="#f2c29e"] ;
45 -> 49 ;
50 [label="x[0] <= -0.57\nsquared_error = 2006.407\nsamples = 5\nvalue = 141.808", fillcolor="#efb083"] ;
36 -> 50 ;
51 [label="x[0] <= -1.823\nsquared_error = 691.314\nsamples = 3\nvalue = 109.626", fillcolor="#f0b58a"] ;
50 -> 51 ;
52 [label="squared_error = 0.0\nsamples = 1\nvalue = 75.068", fillcolor="#f1ba92"] ;
51 -> 52 ;
53 [label="x[3] <= -6.651\nsquared_error = 141.323\nsamples = 2\nvalue = 126.904", fillcolor="#efb286"] ;
51 -> 53 ;
54 [label="squared_error = 0.0\nsamples = 1\nvalue = 138.792", fillcolor="#efb083"] ;
53 -> 54 ;
55 [label="squared_error = -0.0\nsamples = 1\nvalue = 115.016", fillcolor="#efb489"] ;
53 -> 55 ;
56 [label="x[0] <= 0.172\nsquared_error = 95.236\nsamples = 2\nvalue = 190.081", fillcolor="#eda978"] ;
50 -> 56 ;
57 [label="squared_error = 0.0\nsamples = 1\nvalue = 199.84", fillcolor="#eda775"] ;
56 -> 57 ;
58 [label="squared_error = -0.0\nsamples = 1\nvalue = 180.322", fillcolor="#eeaa7a"] ;
56 -> 58 ;
59 [label="x[0] <= -2.407\nsquared_error = 17884.798\nsamples = 28\nvalue = -74.681", fillcolor="#f5cfb4"] ;
35 -> 59 ;
60 [label="squared_error = 0.0\nsamples = 1\nvalue = -355.981", fillcolor="#fef8f4"] ;
59 -> 60 ;
61 [label="x[0] <= -0.201\nsquared_error = 15507.921\nsamples = 27\nvalue = -64.262", fillcolor="#f5ceb2"] ;
59 -> 61 ;
62 [label="x[0] <= -0.796\nsquared_error = 18035.479\nsamples = 9\nvalue = -3.64", fillcolor="#f3c5a4"] ;
61 -> 62 ;
63 [label="x[0] <= -2.027\nsquared_error = 5279.608\nsamples = 4\nvalue = -111.923", fillcolor="#f6d5bc"] ;
62 -> 63 ;
64 [label="squared_error = 0.0\nsamples = 1\nvalue = 13.895", fillcolor="#f2c2a0"] ;
63 -> 64 ;
65 [label="x[3] <= 7.318\nsquared_error = 3.931\nsamples = 3\nvalue = -153.862", fillcolor="#f8dbc6"] ;
63 -> 65 ;
66 [label="squared_error = 0.0\nsamples = 1\nvalue = -151.24", fillcolor="#f7dac5"] ;
65 -> 66 ;
67 [label="x[3] <= 8.973\nsquared_error = 0.742\nsamples = 2\nvalue = -155.173", fillcolor="#f8dbc6"] ;
65 -> 67 ;
68 [label="squared_error = 0.0\nsamples = 1\nvalue = -154.311", fillcolor="#f8dbc6"] ;
67 -> 68 ;
69 [label="squared_error = 0.0\nsamples = 1\nvalue = -156.034", fillcolor="#f8dbc6"] ;
67 -> 69 ;
70 [label="x[1] <= -1.887\nsquared_error = 11355.994\nsamples = 5\nvalue = 82.986", fillcolor="#f0b890"] ;
62 -> 70 ;
71 [label="squared_error = 0.0\nsamples = 1\nvalue = 257.477", fillcolor="#eb9f68"] ;
70 -> 71 ;
72 [label="x[2] <= 10.372\nsquared_error = 4680.244\nsamples = 4\nvalue = 39.363", fillcolor="#f2bf9a"] ;
70 -> 72 ;
73 [label="x[0] <= -0.537\nsquared_error = 1465.735\nsamples = 2\nvalue = -23.065", fillcolor="#f4c8a8"] ;
72 -> 73 ;
74 [label="squared_error = 0.0\nsamples = 1\nvalue = -61.35", fillcolor="#f5cdb1"] ;
73 -> 74 ;
75 [label="squared_error = -0.0\nsamples = 1\nvalue = 15.22", fillcolor="#f2c29f"] ;
73 -> 75 ;
76 [label="x[1] <= 1.02\nsquared_error = 100.152\nsamples = 2\nvalue = 101.792", fillcolor="#f0b68c"] ;
72 -> 76 ;
77 [label="squared_error = 0.0\nsamples = 1\nvalue = 111.799", fillcolor="#f0b489"] ;
76 -> 77 ;
78 [label="squared_error = -0.0\nsamples = 1\nvalue = 91.784", fillcolor="#f0b78e"] ;
76 -> 78 ;
79 [label="x[3] <= 4.876\nsquared_error = 11487.838\nsamples = 18\nvalue = -94.574", fillcolor="#f6d2b8"] ;
61 -> 79 ;
80 [label="x[3] <= -2.26\nsquared_error = 9213.558\nsamples = 14\nvalue = -129.032", fillcolor="#f7d7c0"] ;
79 -> 80 ;
81 [label="x[3] <= -3.425\nsquared_error = 3761.47\nsamples = 5\nvalue = -25.166", fillcolor="#f4c8a9"] ;
80 -> 81 ;
82 [label="x[0] <= 1.399\nsquared_error = 5.427\nsamples = 2\nvalue = 48.672", fillcolor="#f1bd98"] ;
81 -> 82 ;
83 [label="squared_error = 0.0\nsamples = 1\nvalue = 51.002", fillcolor="#f1bd97"] ;
82 -> 83 ;
84 [label="squared_error = -0.0\nsamples = 1\nvalue = 46.343", fillcolor="#f2be98"] ;
82 -> 84 ;
85 [label="x[0] <= 0.182\nsquared_error = 207.643\nsamples = 3\nvalue = -74.391", fillcolor="#f5cfb4"] ;
81 -> 85 ;
86 [label="squared_error = 0.0\nsamples = 1\nvalue = -94.725", fillcolor="#f6d2b8"] ;
85 -> 86 ;
87 [label="x[3] <= -3.184\nsquared_error = 1.379\nsamples = 2\nvalue = -64.224", fillcolor="#f5ceb2"] ;
85 -> 87 ;
88 [label="squared_error = 0.0\nsamples = 1\nvalue = -65.399", fillcolor="#f5ceb2"] ;
87 -> 88 ;
89 [label="squared_error = -0.0\nsamples = 1\nvalue = -63.05", fillcolor="#f5ceb1"] ;
87 -> 89 ;
90 [label="x[1] <= 2.483\nsquared_error = 2919.376\nsamples = 9\nvalue = -186.735", fillcolor="#f8dfcd"] ;
80 -> 90 ;
91 [label="x[1] <= 1.407\nsquared_error = 2066.036\nsamples = 8\nvalue = -175.101", fillcolor="#f8decb"] ;
90 -> 91 ;
92 [label="x[2] <= 10.203\nsquared_error = 965.606\nsamples = 6\nvalue = -195.908", fillcolor="#f9e1cf"] ;
91 -> 92 ;
93 [label="x[0] <= 0.866\nsquared_error = 203.11\nsamples = 5\nvalue = -183.288", fillcolor="#f8dfcd"] ;
92 -> 93 ;
94 [label="x[3] <= -1.652\nsquared_error = 100.144\nsamples = 3\nvalue = -173.524", fillcolor="#f8deca"] ;
93 -> 94 ;
95 [label="squared_error = 0.0\nsamples = 1\nvalue = -159.375", fillcolor="#f8dbc7"] ;
94 -> 95 ;
96 [label="x[2] <= 8.729\nsquared_error = 0.074\nsamples = 2\nvalue = -180.598", fillcolor="#f8dfcc"] ;
94 -> 96 ;
97 [label="squared_error = 0.0\nsamples = 1\nvalue = -180.326", fillcolor="#f8decc"] ;
96 -> 97 ;
98 [label="squared_error = 0.0\nsamples = 1\nvalue = -180.87", fillcolor="#f8dfcc"] ;
96 -> 98 ;
99 [label="x[0] <= 1.524\nsquared_error = 0.038\nsamples = 2\nvalue = -197.934", fillcolor="#f9e1d0"] ;
93 -> 99 ;
100 [label="squared_error = 0.0\nsamples = 1\nvalue = -197.739", fillcolor="#f9e1d0"] ;
99 -> 100 ;
101 [label="squared_error = 0.0\nsamples = 1\nvalue = -198.129", fillcolor="#f9e1d0"] ;
99 -> 101 ;
102 [label="squared_error = 0.0\nsamples = 1\nvalue = -259.009", fillcolor="#fbeade"] ;
92 -> 102 ;
103 [label="x[2] <= 9.9\nsquared_error = 172.09\nsamples = 2\nvalue = -112.679", fillcolor="#f6d5bd"] ;
91 -> 103 ;
104 [label="squared_error = 0.0\nsamples = 1\nvalue = -99.561", fillcolor="#f6d3ba"] ;
103 -> 104 ;
105 [label="squared_error = 0.0\nsamples = 1\nvalue = -125.798", fillcolor="#f7d7c0"] ;
103 -> 105 ;
106 [label="squared_error = -0.0\nsamples = 1\nvalue = -279.812", fillcolor="#fbede3"] ;
90 -> 106 ;
107 [label="x[2] <= 9.885\nsquared_error = 746.709\nsamples = 4\nvalue = 26.03", fillcolor="#f2c19d"] ;
79 -> 107 ;
108 [label="x[0] <= 0.118\nsquared_error = 242.018\nsamples = 3\nvalue = 12.304", fillcolor="#f3c3a0"] ;
107 -> 108 ;
109 [label="squared_error = 0.0\nsamples = 1\nvalue = -9.614", fillcolor="#f3c6a5"] ;
108 -> 109 ;
110 [label="x[0] <= 0.296\nsquared_error = 2.709\nsamples = 2\nvalue = 23.264", fillcolor="#f2c19e"] ;
108 -> 110 ;
111 [label="squared_error = 0.0\nsamples = 1\nvalue = 21.618", fillcolor="#f2c19e"] ;
110 -> 111 ;
112 [label="squared_error = 0.0\nsamples = 1\nvalue = 24.91", fillcolor="#f2c19d"] ;
110 -> 112 ;
113 [label="squared_error = 0.0\nsamples = 1\nvalue = 67.208", fillcolor="#f1bb94"] ;
107 -> 113 ;
114 [label="x[1] <= 1.445\nsquared_error = 14943.777\nsamples = 18\nvalue = 94.426", fillcolor="#f0b78d"] ;
18 -> 114 ;
115 [label="x[3] <= 1.071\nsquared_error = 11538.029\nsamples = 14\nvalue = 132.216", fillcolor="#efb185"] ;
114 -> 115 ;
116 [label="x[2] <= 11.396\nsquared_error = 12168.108\nsamples = 6\nvalue = 59.492", fillcolor="#f1bc95"] ;
115 -> 116 ;
117 [label="x[1] <= -1.652\nsquared_error = 70.418\nsamples = 2\nvalue = -49.894", fillcolor="#f4ccae"] ;
116 -> 117 ;
118 [label="squared_error = 0.0\nsamples = 1\nvalue = -41.502", fillcolor="#f4caac"] ;
117 -> 118 ;
119 [label="squared_error = 0.0\nsamples = 1\nvalue = -58.285", fillcolor="#f5cdb0"] ;
117 -> 119 ;
120 [label="x[2] <= 12.142\nsquared_error = 9243.028\nsamples = 4\nvalue = 114.185", fillcolor="#efb489"] ;
116 -> 120 ;
121 [label="x[2] <= 11.632\nsquared_error = 68.268\nsamples = 2\nvalue = 209.486", fillcolor="#eda673"] ;
120 -> 121 ;
122 [label="squared_error = 0.0\nsamples = 1\nvalue = 217.749", fillcolor="#eca571"] ;
121 -> 122 ;
123 [label="squared_error = -0.0\nsamples = 1\nvalue = 201.224", fillcolor="#eda775"] ;
121 -> 123 ;
124 [label="x[0] <= -1.087\nsquared_error = 253.056\nsamples = 2\nvalue = 18.883", fillcolor="#f2c29f"] ;
120 -> 124 ;
125 [label="squared_error = 0.0\nsamples = 1\nvalue = 34.791", fillcolor="#f2bf9b"] ;
124 -> 125 ;
126 [label="squared_error = 0.0\nsamples = 1\nvalue = 2.976", fillcolor="#f3c4a2"] ;
124 -> 126 ;
127 [label="x[0] <= 0.32\nsquared_error = 4123.836\nsamples = 8\nvalue = 186.76", fillcolor="#eda978"] ;
115 -> 127 ;
128 [label="x[1] <= -1.443\nsquared_error = 1347.075\nsamples = 4\nvalue = 237.976", fillcolor="#eca26d"] ;
127 -> 128 ;
129 [label="x[0] <= -0.604\nsquared_error = 492.642\nsamples = 2\nvalue = 270.848", fillcolor="#eb9d65"] ;
128 -> 129 ;
130 [label="squared_error = 0.0\nsamples = 1\nvalue = 293.044", fillcolor="#ea9a60"] ;
129 -> 130 ;
131 [label="squared_error = 0.0\nsamples = 1\nvalue = 248.653", fillcolor="#eba06a"] ;
129 -> 131 ;
132 [label="x[2] <= 12.253\nsquared_error = 40.388\nsamples = 2\nvalue = 205.104", fillcolor="#eda774"] ;
128 -> 132 ;
133 [label="squared_error = 0.0\nsamples = 1\nvalue = 211.459", fillcolor="#eda673"] ;
132 -> 133 ;
134 [label="squared_error = 0.0\nsamples = 1\nvalue = 198.749", fillcolor="#eda876"] ;
132 -> 134 ;
135 [label="x[0] <= 0.554\nsquared_error = 1654.388\nsamples = 4\nvalue = 135.544", fillcolor="#efb184"] ;
127 -> 135 ;
136 [label="squared_error = 0.0\nsamples = 1\nvalue = 75.061", fillcolor="#f1ba92"] ;
135 -> 136 ;
137 [label="x[3] <= 2.923\nsquared_error = 580.001\nsamples = 3\nvalue = 155.705", fillcolor="#eeae80"] ;
135 -> 137 ;
138 [label="x[2] <= 11.353\nsquared_error = 195.899\nsamples = 2\nvalue = 140.715", fillcolor="#efb083"] ;
137 -> 138 ;
139 [label="squared_error = 0.0\nsamples = 1\nvalue = 154.711", fillcolor="#eeae80"] ;
138 -> 139 ;
140 [label="squared_error = -0.0\nsamples = 1\nvalue = 126.718", fillcolor="#efb286"] ;
138 -> 140 ;
141 [label="squared_error = -0.0\nsamples = 1\nvalue = 185.685", fillcolor="#edaa79"] ;
137 -> 141 ;
142 [label="x[1] <= 4.609\nsquared_error = 4371.352\nsamples = 4\nvalue = -37.839", fillcolor="#f4caac"] ;
114 -> 142 ;
143 [label="x[0] <= 0.108\nsquared_error = 571.937\nsamples = 3\nvalue = -74.09", fillcolor="#f5cfb4"] ;
142 -> 143 ;
144 [label="x[3] <= -0.565\nsquared_error = 102.813\nsamples = 2\nvalue = -89.955", fillcolor="#f6d1b7"] ;
143 -> 144 ;
145 [label="squared_error = 0.0\nsamples = 1\nvalue = -100.095", fillcolor="#f6d3ba"] ;
144 -> 145 ;
146 [label="squared_error = 0.0\nsamples = 1\nvalue = -79.816", fillcolor="#f5d0b5"] ;
144 -> 146 ;
147 [label="squared_error = 0.0\nsamples = 1\nvalue = -42.36", fillcolor="#f4cbad"] ;
143 -> 147 ;
148 [label="squared_error = 0.0\nsamples = 1\nvalue = 70.914", fillcolor="#f1ba93"] ;
142 -> 148 ;
}